{
  "Layers": [
    {
      "Neurons": [
        {
          "Activation": "Relu"
        },
        {
          "Activation": "Relu"
        }
      ],
      "Activation": "Relu"
    },
    {
      "Neurons": [
        {
          "Activation": "Relu"
        },
        {
          "Activation": "Relu"
        },
        {
          "Activation": "Relu"
        },
        {
          "Activation": "Relu"
        },
        {
          "Activation": "Relu"
        },
        {
          "Activation": "Relu"
        },
        {
          "Activation": "Relu"
        },
        {
          "Activation": "Relu"
        },
        {
          "Activation": "Relu"
        },
        {
          "Activation": "Relu"
        },
        {
          "Activation": "Relu"
        },
        {
          "Activation": "Relu"
        },
        {
          "Activation": "Relu"
        },
        {
          "Activation": "Relu"
        },
        {
          "Activation": "Relu"
        },
        {
          "Activation": "Relu"
        },
        {
          "Activation": "Relu"
        },
        {
          "Activation": "Relu"
        },
        {
          "Activation": "Relu"
        },
        {
          "Activation": "Relu"
        },
        {
          "Activation": "Relu"
        },
        {
          "Activation": "Relu"
        },
        {
          "Activation": "Relu"
        },
        {
          "Activation": "Relu"
        },
        {
          "Activation": "Relu"
        },
        {
          "Activation": "Relu"
        },
        {
          "Activation": "Relu"
        },
        {
          "Activation": "Relu"
        },
        {
          "Activation": "Relu"
        },
        {
          "Activation": "Relu"
        },
        {
          "Activation": "Relu"
        },
        {
          "Activation": "Relu"
        },
        {
          "Activation": "Relu"
        },
        {
          "Activation": "Relu"
        },
        {
          "Activation": "Relu"
        },
        {
          "Activation": "Relu"
        },
        {
          "Activation": "Relu"
        },
        {
          "Activation": "Relu"
        },
        {
          "Activation": "Relu"
        },
        {
          "Activation": "Relu"
        }
      ],
      "Activation": "Relu"
    },
    {
      "Neurons": [
        {
          "Activation": "Relu"
        },
        {
          "Activation": "Relu"
        },
        {
          "Activation": "Relu"
        },
        {
          "Activation": "Relu"
        },
        {
          "Activation": "Relu"
        },
        {
          "Activation": "Relu"
        },
        {
          "Activation": "Relu"
        },
        {
          "Activation": "Relu"
        },
        {
          "Activation": "Relu"
        },
        {
          "Activation": "Relu"
        },
        {
          "Activation": "Relu"
        },
        {
          "Activation": "Relu"
        },
        {
          "Activation": "Relu"
        },
        {
          "Activation": "Relu"
        },
        {
          "Activation": "Relu"
        },
        {
          "Activation": "Relu"
        },
        {
          "Activation": "Relu"
        },
        {
          "Activation": "Relu"
        },
        {
          "Activation": "Relu"
        },
        {
          "Activation": "Relu"
        },
        {
          "Activation": "Relu"
        },
        {
          "Activation": "Relu"
        },
        {
          "Activation": "Relu"
        },
        {
          "Activation": "Relu"
        },
        {
          "Activation": "Relu"
        },
        {
          "Activation": "Relu"
        },
        {
          "Activation": "Relu"
        },
        {
          "Activation": "Relu"
        },
        {
          "Activation": "Relu"
        },
        {
          "Activation": "Relu"
        },
        {
          "Activation": "Relu"
        },
        {
          "Activation": "Relu"
        },
        {
          "Activation": "Relu"
        },
        {
          "Activation": "Relu"
        },
        {
          "Activation": "Relu"
        },
        {
          "Activation": "Relu"
        },
        {
          "Activation": "Relu"
        },
        {
          "Activation": "Relu"
        },
        {
          "Activation": "Relu"
        },
        {
          "Activation": "Relu"
        },
        {
          "Activation": "Relu"
        },
        {
          "Activation": "Relu"
        },
        {
          "Activation": "Relu"
        },
        {
          "Activation": "Relu"
        },
        {
          "Activation": "Relu"
        },
        {
          "Activation": "Relu"
        },
        {
          "Activation": "Relu"
        },
        {
          "Activation": "Relu"
        },
        {
          "Activation": "Relu"
        },
        {
          "Activation": "Relu"
        }
      ],
      "Activation": "Relu"
    },
    {
      "Neurons": [
        {
          "Activation": "Softmax"
        },
        {
          "Activation": "Softmax"
        }
      ],
      "Activation": "Softmax"
    }
  ],
  "Weights": [
    {
      "data": [
        [
          0.013355784518068384,
          0.013355784518068384
        ],
        [
          0.0,
          0.0
        ],
        [
          0.0046084355140536045,
          0.0046084355140536045
        ],
        [
          0.0070404774749077085,
          0.0070404774749077085
        ],
        [
          -0.0,
          -0.0
        ],
        [
          0.011382339898894292,
          0.011382339898894292
        ],
        [
          0.0,
          -0.0
        ],
        [
          0.003395880371335304,
          0.003395880371335304
        ],
        [
          -0.0,
          0.0
        ],
        [
          -0.0,
          -0.0
        ],
        [
          0.009711506977899496,
          0.009711506977899496
        ],
        [
          0.0,
          -0.0
        ],
        [
          -0.0,
          0.0
        ],
        [
          0.0,
          0.0
        ],
        [
          -0.0,
          -0.0
        ],
        [
          0.0048319413742961125,
          0.0048319413742961125
        ],
        [
          0.03891398623992993,
          0.03891398623992993
        ],
        [
          0.0019552315557926875,
          0.0019552315557926875
        ],
        [
          0.0,
          -0.0
        ],
        [
          5.037225780002516E-4,
          5.037225780002516E-4
        ],
        [
          -0.0,
          0.0
        ],
        [
          0.02318781125780334,
          0.02318781125780334
        ],
        [
          0.024248887110577773,
          0.024248887110577773
        ],
        [
          0.017783729895790863,
          0.017783729895790863
        ],
        [
          0.010712249399327791,
          0.010712249399327791
        ],
        [
          0.0,
          0.0
        ],
        [
          -0.0,
          0.0
        ],
        [
          -0.0,
          0.0
        ],
        [
          0.0,
          -0.0
        ],
        [
          0.006474213570588115,
          0.006474213570588115
        ],
        [
          0.028129658819660477,
          0.028129658819660477
        ],
        [
          0.006978217777705879,
          0.006978217777705879
        ],
        [
          0.0,
          0.0
        ],
        [
          0.0021604634705707283,
          0.0021604634705707283
        ],
        [
          -0.0,
          0.0
        ],
        [
          0.0,
          0.0
        ],
        [
          -0.0,
          -0.0
        ],
        [
          0.03277876335761589,
          0.03277876335761589
        ],
        [
          0.0031185009058613817,
          0.0031185009058613817
        ],
        [
          3.7348606141520484E-6,
          3.7348606141520484E-6
        ]
      ]
    },
    {
      "data": [
        [
          0.0,
          -0.0,
          -0.0,
          -0.0,
          -0.0,
          -0.0,
          0.0,
          0.0,
          -0.0,
          -0.0,
          -0.0,
          0.0,
          -0.0,
          0.0,
          0.0,
          0.0,
          0.0,
          0.0,
          0.0,
          0.0,
          0.0,
          0.0,
          0.0,
          0.0,
          0.0,
          0.0,
          0.0,
          0.0,
          -0.0,
          -0.0,
          0.0,
          -0.0,
          -0.0,
          0.0,
          -0.0,
          0.0,
          -0.0,
          0.0,
          -0.0,
          -0.0
        ],
        [
          0.0,
          0.0,
          0.0,
          -0.0,
          -0.0,
          0.0,
          0.0,
          0.0,
          -0.0,
          0.0,
          0.0,
          0.0,
          0.0,
          -0.0,
          -0.0,
          -0.0,
          -0.0,
          -0.0,
          0.0,
          -0.0,
          -0.0,
          -0.0,
          -0.0,
          0.0,
          -0.0,
          -0.0,
          -0.0,
          -0.0,
          -0.0,
          -0.0,
          0.0,
          -0.0,
          0.0,
          -0.0,
          0.0,
          -0.0,
          -0.0,
          0.0,
          0.0,
          0.0
        ],
        [
          0.0,
          0.0,
          0.0,
          -0.0,
          0.0,
          0.0,
          -0.0,
          0.0,
          0.0,
          -0.0,
          0.0,
          -0.0,
          0.0,
          0.0,
          0.0,
          0.0,
          0.0,
          -0.0,
          0.0,
          0.0,
          -0.0,
          0.0,
          0.0,
          -0.0,
          0.0,
          0.0,
          -0.0,
          0.0,
          -0.0,
          -0.0,
          -0.0,
          -0.0,
          -0.0,
          0.0,
          -0.0,
          -0.0,
          0.0,
          0.0,
          0.0,
          0.0
        ],
        [
          0.0,
          -0.0,
          0.0,
          -0.0,
          0.0,
          -0.0,
          -0.0,
          0.0,
          0.0,
          -0.0,
          -0.0,
          0.0,
          -0.0,
          -0.0,
          0.0,
          0.0,
          0.0,
          0.0,
          -0.0,
          -0.0,
          -0.0,
          0.0,
          -0.0,
          0.0,
          -0.0,
          -0.0,
          0.0,
          0.0,
          0.0,
          -0.0,
          0.0,
          0.0,
          -0.0,
          0.0,
          0.0,
          -0.0,
          -0.0,
          -0.0,
          0.0,
          -0.0
        ],
        [
          -0.0,
          -0.0,
          0.0,
          0.0,
          0.0,
          0.0,
          0.0,
          0.0,
          -0.0,
          -0.0,
          0.0,
          0.0,
          -0.0,
          -0.0,
          -0.0,
          0.0,
          -0.0,
          0.0,
          0.0,
          -0.0,
          0.0,
          0.0,
          -0.0,
          0.0,
          -0.0,
          -0.0,
          0.0,
          -0.0,
          -0.0,
          -0.0,
          -0.0,
          -0.0,
          -0.0,
          -0.0,
          0.0,
          0.0,
          0.0,
          0.0,
          -0.0,
          0.0
        ],
        [
          0.010669011367606304,
          0.0,
          0.0036813599994670564,
          0.00562414990385225,
          0.0,
          0.00909256312176739,
          0.0,
          0.0027127336650117732,
          -0.0,
          -0.0,
          0.007757850405839165,
          0.0,
          0.0,
          -0.0,
          -0.0,
          0.0038599033535041747,
          0.03108568882576817,
          0.0015618990907523016,
          0.0,
          4.02389084934256E-4,
          -0.0,
          0.018523136665219833,
          0.019370756684832527,
          0.014206190296043565,
          0.008557274225220148,
          0.0,
          0.0,
          -0.0,
          -0.0,
          0.005171800884288675,
          0.022470836460997966,
          0.005574414943222178,
          0.0,
          0.0017258446552228636,
          -0.0,
          0.0,
          0.0,
          0.02618468412734311,
          0.0024911544184854175,
          2.9835215067228492E-6
        ],
        [
          0.058543122488002065,
          0.0,
          0.02020040113797213,
          0.030860900355941627,
          0.0,
          0.0498928174529584,
          -0.0,
          0.014885343520234972,
          0.0,
          0.0,
          0.0425689664116028,
          -0.0,
          -0.0,
          0.0,
          0.0,
          0.02118010629383578,
          0.17057375101092895,
          0.008570470743094282,
          0.0,
          0.0022079940376355913,
          -0.0,
          0.10164036959848895,
          0.1062914399668369,
          0.07795237158658529,
          0.04695557403299286,
          -0.0,
          -0.0,
          -0.0,
          -0.0,
          0.028378765587574763,
          0.12330223354511392,
          0.030587994105139453,
          0.0,
          0.009470074739328415,
          -0.0,
          -0.0,
          -0.0,
          0.14368090138426962,
          0.01366949131769839,
          1.6371213695018542E-5
        ],
        [
          -0.0,
          -0.0,
          -0.0,
          -0.0,
          0.0,
          0.0,
          -0.0,
          0.0,
          0.0,
          -0.0,
          -0.0,
          0.0,
          0.0,
          -0.0,
          0.0,
          0.0,
          0.0,
          -0.0,
          0.0,
          0.0,
          0.0,
          -0.0,
          -0.0,
          0.0,
          -0.0,
          -0.0,
          -0.0,
          -0.0,
          -0.0,
          0.0,
          -0.0,
          -0.0,
          0.0,
          -0.0,
          -0.0,
          0.0,
          -0.0,
          0.0,
          -0.0,
          -0.0
        ],
        [
          0.0,
          0.0,
          -0.0,
          -0.0,
          -0.0,
          -0.0,
          0.0,
          0.0,
          -0.0,
          -0.0,
          -0.0,
          -0.0,
          0.0,
          -0.0,
          0.0,
          0.0,
          0.0,
          -0.0,
          0.0,
          0.0,
          -0.0,
          0.0,
          -0.0,
          0.0,
          0.0,
          -0.0,
          0.0,
          -0.0,
          -0.0,
          0.0,
          -0.0,
          -0.0,
          -0.0,
          0.0,
          -0.0,
          -0.0,
          -0.0,
          0.0,
          0.0,
          -0.0
        ],
        [
          -0.0222289130263328,
          -0.0,
          -0.007670123165791878,
          -0.011717931001496313,
          -0.0,
          -0.018944378992217348,
          -0.0,
          -0.005651987670220421,
          -0.0,
          -0.0,
          -0.016163501565505486,
          -0.0,
          -0.0,
          -0.0,
          -0.0,
          -0.008042118709856279,
          -0.06476711378991441,
          -0.0032542208315250003,
          0.0,
          -8.383787085378293E-4,
          -0.0,
          -0.03859300358009027,
          -0.04035902210290791,
          -0.029598634554378195,
          -0.01782910317936776,
          -0.0,
          0.0,
          0.0,
          -0.0,
          -0.010775460638782586,
          -0.04681804640653812,
          -0.011614308081234818,
          0.0,
          -0.0035958018429329375,
          0.0,
          0.0,
          0.0,
          -0.054555857711050454,
          -0.005190326731848022,
          -6.216174845075224E-6
        ],
        [
          -0.0,
          -0.0,
          -0.0,
          0.0,
          -0.0,
          0.0,
          0.0,
          0.0,
          0.0,
          0.0,
          -0.0,
          -0.0,
          -0.0,
          -0.0,
          -0.0,
          0.0,
          -0.0,
          0.0,
          0.0,
          0.0,
          -0.0,
          -0.0,
          0.0,
          0.0,
          -0.0,
          -0.0,
          -0.0,
          -0.0,
          -0.0,
          0.0,
          0.0,
          -0.0,
          0.0,
          0.0,
          0.0,
          -0.0,
          -0.0,
          -0.0,
          0.0,
          -0.0
        ],
        [
          -0.0,
          0.0,
          -0.0,
          -0.0,
          -0.0,
          0.0,
          0.0,
          -0.0,
          -0.0,
          0.0,
          0.0,
          0.0,
          0.0,
          0.0,
          -0.0,
          0.0,
          0.0,
          -0.0,
          -0.0,
          0.0,
          -0.0,
          -0.0,
          -0.0,
          0.0,
          0.0,
          -0.0,
          -0.0,
          -0.0,
          -0.0,
          0.0,
          -0.0,
          -0.0,
          0.0,
          -0.0,
          0.0,
          -0.0,
          0.0,
          -0.0,
          -0.0,
          0.0
        ],
        [
          0.05248523948994126,
          0.0,
          0.018110118600808075,
          0.027667498370774042,
          0.0,
          0.04473004447931766,
          -0.0,
          0.013345048681161419,
          -0.0,
          0.0,
          0.03816404561287514,
          -0.0,
          0.0,
          -0.0,
          0.0,
          0.018988446533275267,
          0.15292324344915267,
          0.007683621753947849,
          -0.0,
          0.001979516823370974,
          -0.0,
          0.0911229007526225,
          0.0952926910164986,
          0.06988607231138577,
          0.04209673901514914,
          -0.0,
          0.0,
          0.0,
          0.0,
          0.02544220815345192,
          0.1105432539678143,
          0.027422831716128054,
          0.0,
          0.00849013717679935,
          0.0,
          -0.0,
          0.0,
          0.12881319271669403,
          0.012255009555770009,
          1.4677165053848192E-5
        ],
        [
          0.04400147513688474,
          0.0,
          0.015182781694121933,
          0.023195297449195046,
          0.0,
          0.03749983727149873,
          0.0,
          0.01118794223768716,
          -0.0,
          0.0,
          0.03199517274718147,
          0.0,
          0.0,
          0.0,
          -0.0,
          0.01591913585879898,
          0.12820458399107193,
          0.006441633778433224,
          0.0,
          0.0016595458291334543,
          0.0,
          0.07639370784686586,
          0.07988948922092469,
          0.058589620683989346,
          0.035292181823310634,
          -0.0,
          0.0,
          -0.0,
          0.0,
          0.021329705272776996,
          0.09267493657806875,
          0.022990178946815137,
          -0.0,
          0.007117783276291807,
          -0.0,
          0.0,
          -0.0,
          0.10799170493853998,
          0.01027409807997245,
          1.2304734044714103E-5
        ],
        [
          -0.0,
          0.0,
          0.0,
          0.0,
          0.0,
          -0.0,
          0.0,
          0.0,
          -0.0,
          0.0,
          0.0,
          -0.0,
          -0.0,
          -0.0,
          0.0,
          -0.0,
          0.0,
          -0.0,
          0.0,
          0.0,
          0.0,
          -0.0,
          -0.0,
          -0.0,
          0.0,
          -0.0,
          0.0,
          0.0,
          0.0,
          0.0,
          0.0,
          -0.0,
          0.0,
          -0.0,
          -0.0,
          -0.0,
          0.0,
          -0.0,
          0.0,
          0.0
        ],
        [
          0.0058113815841195305,
          0.0,
          0.002005226817020174,
          0.0030634592139260207,
          0.0,
          0.004952694496016776,
          -0.0,
          0.0014776186771471801,
          0.0,
          0.0,
          0.004225680096070937,
          0.0,
          0.0,
          0.0,
          0.0,
          0.0021024788981988296,
          0.016932290476345313,
          8.50762202748265E-4,
          0.0,
          2.1918024428558823E-4,
          -0.0,
          0.010089502352882092,
          0.010551198680928315,
          0.0077380733624102015,
          0.004661124084439167,
          -0.0,
          -0.0,
          -0.0,
          -0.0,
          0.002817065928614885,
          0.012239803735301957,
          0.0030363687156282787,
          0.0,
          9.400629075028975E-4,
          0.0,
          0.0,
          -0.0,
          0.014262726496444838,
          0.001356925061935935,
          1.625116080824251E-6
        ],
        [
          0.15798782237889392,
          -0.0,
          0.05451395913537794,
          0.08328299271851368,
          -0.0,
          0.13464361391649754,
          0.0,
          0.04017044032124655,
          0.0,
          -0.0,
          0.11487905015089997,
          0.0,
          0.0,
          0.0,
          0.0,
          0.05715784756445957,
          0.4603200911044634,
          0.0231287630710339,
          -0.0,
          0.0059586191341796805,
          -0.0,
          0.2742925210718329,
          0.28684416587651973,
          0.21036673332139105,
          0.1267170006441669,
          -0.0,
          0.0,
          0.0,
          -0.0,
          0.07658456171176933,
          0.3327504674223486,
          0.08254651228416855,
          -0.0,
          0.025556485924346308,
          -0.0,
          -0.0,
          -0.0,
          0.38774550728464546,
          0.03688927195082552,
          4.4180294652127364E-5
        ],
        [
          -0.0,
          -0.0,
          -0.0,
          -0.0,
          -0.0,
          -0.0,
          0.0,
          0.0,
          0.0,
          -0.0,
          0.0,
          0.0,
          0.0,
          0.0,
          -0.0,
          0.0,
          -0.0,
          0.0,
          -0.0,
          0.0,
          -0.0,
          0.0,
          -0.0,
          -0.0,
          -0.0,
          -0.0,
          -0.0,
          0.0,
          -0.0,
          -0.0,
          -0.0,
          -0.0,
          0.0,
          0.0,
          -0.0,
          0.0,
          -0.0,
          -0.0,
          -0.0,
          -0.0
        ],
        [
          -0.0,
          0.0,
          0.0,
          -0.0,
          -0.0,
          -0.0,
          0.0,
          0.0,
          -0.0,
          -0.0,
          0.0,
          0.0,
          0.0,
          0.0,
          -0.0,
          -0.0,
          0.0,
          -0.0,
          0.0,
          -0.0,
          -0.0,
          0.0,
          0.0,
          -0.0,
          -0.0,
          0.0,
          -0.0,
          0.0,
          0.0,
          -0.0,
          -0.0,
          -0.0,
          0.0,
          0.0,
          0.0,
          -0.0,
          -0.0,
          -0.0,
          -0.0,
          -0.0
        ],
        [
          0.0402967244233886,
          0.0,
          0.013904451339533233,
          0.021242344860506905,
          0.0,
          0.034342498831016956,
          -0.0,
          0.010245961614112873,
          -0.0,
          0.0,
          0.029301305355354162,
          -0.0,
          -0.0,
          0.0,
          0.0,
          0.014578807386908832,
          0.11741026351574953,
          0.005899273612950326,
          -0.0,
          0.0015198186137290696,
          0.0,
          0.06996165885823799,
          0.0731631092240872,
          0.0536566056348968,
          0.03232071926702112,
          0.0,
          0.0,
          -0.0,
          -0.0,
          0.0195338281895163,
          0.08487207232538804,
          0.021054496527267392,
          0.0,
          0.00651849398907314,
          0.0,
          0.0,
          0.0,
          0.09889922918225885,
          0.009409059531289624,
          1.1268723954376793E-5
        ],
        [
          -0.018003644634499983,
          -0.0,
          -0.006212187326306885,
          -0.00949058846703919,
          0.0,
          -0.015343434327766343,
          -0.0,
          -0.00457765871739572,
          -0.0,
          0.0,
          -0.013091145657451517,
          -0.0,
          0.0,
          0.0,
          0.0,
          -0.006513474014190332,
          -0.052456190696077626,
          -0.0026356590330601608,
          0.0,
          -6.790198117094397E-4,
          0.0,
          -0.031257251355963196,
          -0.0326875853477822,
          -0.02397253062046682,
          -0.014440149971027388,
          0.0,
          -0.0,
          -0.0,
          0.0,
          -0.008727262726876,
          -0.03791887929861093,
          -0.009406662175629063,
          -0.0,
          -0.002912312378007649,
          -0.0,
          -0.0,
          0.0,
          -0.04418588861257212,
          -0.00420375021965495,
          -5.034605280252653E-6
        ],
        [
          -0.015555667847757968,
          -0.0,
          -0.005367508891555401,
          -0.008200141964039868,
          -0.0,
          -0.013257169472744048,
          -0.0,
          -0.003955229064661,
          -0.0,
          -0.0,
          -0.011311127148316674,
          0.0,
          0.0,
          -0.0,
          0.0,
          -0.005627829273278908,
          -0.04532366060276374,
          -0.0022772853669673597,
          0.0,
          -5.866926873661218E-4,
          0.0,
          -0.027007166037676014,
          -0.02824301583030364,
          -0.020712957369065144,
          -0.012476705754937508,
          0.0,
          -0.0,
          -0.0,
          -0.0,
          -0.007540606524706212,
          -0.03276300457509053,
          -0.008127627229419563,
          0.0,
          -0.0025163218304358535,
          0.0,
          0.0,
          -0.0,
          -0.03817788124400513,
          -0.003632161346185639,
          -4.350044064639148E-6
        ],
        [
          -0.0146939119891753,
          -0.0,
          -0.005070158608779893,
          -0.007745868933278233,
          0.0,
          -0.012522746266156324,
          -0.0,
          -0.003736116529483035,
          -0.0,
          -0.0,
          -0.01068451116611421,
          0.0,
          -0.0,
          0.0,
          -0.0,
          -0.005316057712275074,
          -0.04281281179581368,
          -0.0021511278772436398,
          0.0,
          -5.541909738123452E-4,
          0.0,
          -0.025511017895116807,
          -0.026678403844883805,
          -0.019565497000532034,
          -0.011785518826458358,
          -0.0,
          0.0,
          -0.0,
          -0.0,
          -0.007122870564184906,
          -0.030947993389863305,
          -0.007677371383776774,
          -0.0,
          -0.002376922153052623,
          -0.0,
          -0.0,
          0.0,
          -0.036062895686824616,
          -0.0034309461781820566,
          -4.109059492682173E-6
        ],
        [
          -0.018253203632574082,
          -0.0,
          -0.0062982980709075,
          -0.009622143038185765,
          0.0,
          -0.015556118602289025,
          0.0,
          -0.0046411123095005885,
          -0.0,
          0.0,
          -0.013272609647673544,
          -0.0,
          -0.0,
          -0.0,
          -0.0,
          -0.006603761068948528,
          -0.053183316489696694,
          -0.0026721934371160445,
          -0.0,
          -6.884321005722145E-4,
          0.0,
          -0.03169052631163516,
          -0.03314068699550202,
          -0.024304827821639036,
          -0.014640313295285829,
          -0.0,
          0.0,
          0.0,
          -0.0,
          -0.008848236395611681,
          -0.038444494956882666,
          -0.009537053395597506,
          -0.0,
          -0.0029526816351158167,
          0.0,
          0.0,
          0.0,
          -0.044798374934926874,
          -0.00426202084842311,
          -5.104392874650651E-6
        ],
        [
          0.08729443337565262,
          0.0,
          0.030121088461954902,
          0.046017101506441366,
          0.0,
          0.07439584777808017,
          -0.0,
          0.02219573492116292,
          -0.0,
          0.0,
          0.06347515548132304,
          -0.0,
          0.0,
          -0.0,
          0.0,
          0.03158193993044109,
          0.25434480277867655,
          0.012779543616491642,
          -0.0,
          0.0032923694572615683,
          -0.0,
          0.15155731527662158,
          0.1584925885442641,
          0.11623582444434755,
          0.070016084807891,
          -0.0,
          0.0,
          0.0,
          -0.0,
          0.042315957136989685,
          0.18385761049009877,
          0.045610167343793064,
          -0.0,
          0.014120955173926641,
          -0.0,
          -0.0,
          0.0,
          0.21424451481578205,
          0.020382761431224472,
          2.4411335822944147E-5
        ],
        [
          0.0,
          0.0,
          0.0,
          -0.0,
          -0.0,
          0.0,
          0.0,
          -0.0,
          -0.0,
          -0.0,
          0.0,
          0.0,
          0.0,
          0.0,
          -0.0,
          0.0,
          0.0,
          -0.0,
          -0.0,
          0.0,
          -0.0,
          -0.0,
          0.0,
          -0.0,
          0.0,
          -0.0,
          -0.0,
          0.0,
          -0.0,
          -0.0,
          -0.0,
          -0.0,
          0.0,
          -0.0,
          0.0,
          -0.0,
          0.0,
          -0.0,
          0.0,
          -0.0
        ],
        [
          0.0,
          0.0,
          0.0,
          0.0,
          -0.0,
          0.0,
          0.0,
          -0.0,
          0.0,
          0.0,
          0.0,
          -0.0,
          -0.0,
          0.0,
          -0.0,
          0.0,
          -0.0,
          0.0,
          0.0,
          -0.0,
          0.0,
          0.0,
          -0.0,
          -0.0,
          -0.0,
          -0.0,
          0.0,
          0.0,
          0.0,
          0.0,
          0.0,
          0.0,
          0.0,
          0.0,
          0.0,
          -0.0,
          -0.0,
          -0.0,
          -0.0,
          0.0
        ],
        [
          0.0,
          0.0,
          -0.0,
          0.0,
          0.0,
          0.0,
          0.0,
          -0.0,
          -0.0,
          -0.0,
          0.0,
          -0.0,
          -0.0,
          0.0,
          0.0,
          -0.0,
          0.0,
          -0.0,
          -0.0,
          -0.0,
          0.0,
          0.0,
          0.0,
          -0.0,
          0.0,
          -0.0,
          0.0,
          0.0,
          -0.0,
          0.0,
          -0.0,
          -0.0,
          -0.0,
          0.0,
          0.0,
          -0.0,
          0.0,
          0.0,
          -0.0,
          -0.0
        ],
        [
          -0.0,
          -0.0,
          0.0,
          0.0,
          -0.0,
          0.0,
          -0.0,
          -0.0,
          0.0,
          0.0,
          -0.0,
          0.0,
          0.0,
          0.0,
          -0.0,
          -0.0,
          -0.0,
          -0.0,
          -0.0,
          0.0,
          0.0,
          0.0,
          0.0,
          0.0,
          0.0,
          0.0,
          -0.0,
          0.0,
          0.0,
          0.0,
          -0.0,
          0.0,
          0.0,
          -0.0,
          0.0,
          -0.0,
          0.0,
          0.0,
          -0.0,
          0.0
        ],
        [
          0.016742281160662592,
          -0.0,
          0.005776951775666004,
          0.008825663009967828,
          0.0,
          0.014268449344604696,
          0.0,
          0.004256940795050612,
          0.0,
          -0.0,
          0.012173959537739473,
          -0.0,
          -0.0,
          -0.0,
          -0.0,
          0.0060571298474350445,
          0.048781028012968304,
          0.002451000642979473,
          -0.0,
          6.314466227307567E-4,
          0.0,
          0.02906731948642339,
          0.030397442043874644,
          0.02229297766805208,
          0.01342845050128294,
          0.0,
          0.0,
          0.0,
          0.0,
          0.008115817063858971,
          0.0352622233665972,
          0.00874761672566888,
          0.0,
          0.002708271222308331,
          0.0,
          0.0,
          -0.0,
          0.041090156215802906,
          0.003909228910894627,
          4.681872967733598E-6
        ],
        [
          -0.0070284569564504394,
          0.0,
          -0.002425180685064548,
          -0.0037050382789797246,
          -0.0,
          -0.0059899353673188395,
          -0.0,
          -0.0017870757788054797,
          0.0,
          0.0,
          -0.005110662625927685,
          0.0,
          -0.0,
          -0.0,
          0.0,
          -0.0025428002315691514,
          -0.020478413448587834,
          -0.0010289369981367569,
          0.0,
          -2.650830771249294E-4,
          -0.0,
          -0.012202542884642027,
          -0.012760932094101505,
          -0.009358655040339536,
          -0.005637301478477769,
          0.0,
          -0.0,
          -0.0,
          0.0,
          -0.0034070429442902713,
          -0.014803181044599349,
          -0.0036722742282185895,
          0.0,
          -0.0011369399145626487,
          -0.0,
          -0.0,
          -0.0,
          -0.01724976372844328,
          -0.0016411053469638063,
          -1.96546350604841E-6
        ],
        [
          -7.240107516465544E-4,
          0.0,
          -2.498211060481503E-4,
          -3.8166094860714436E-4,
          -0.0,
          -6.170312537272645E-4,
          -0.0,
          -1.8408906618896785E-4,
          -0.0,
          -0.0,
          -5.264561926090919E-4,
          -0.0,
          0.0,
          -0.0,
          0.0,
          -2.6193725284975926E-4,
          -0.00210950875922115,
          -1.0599217638151017E-4,
          0.0,
          -2.7306562323307634E-5,
          -0.0,
          -0.001257000263450543,
          -0.0013145206827626357,
          -9.640475729083703E-4,
          -5.807059651898582E-4,
          -0.0,
          -0.0,
          0.0,
          -0.0,
          -3.5096405061196833E-4,
          -0.001524895478661787,
          -3.782858799163181E-4,
          -0.0,
          -1.1711770125646335E-4,
          0.0,
          0.0,
          -0.0,
          -0.0017769212332293973,
          -1.6905245676947337E-4,
          -2.0246502456588542E-7
        ],
        [
          -0.0056144782317838525,
          0.0,
          -0.0019372849899779348,
          -0.002959661970493587,
          -0.0,
          -0.004784885493072427,
          -0.0,
          -0.0014275534617086978,
          0.0,
          -0.0,
          -0.004082504060429414,
          -0.0,
          0.0,
          -0.0,
          0.0,
          -0.0020312419406392523,
          -0.016358584429124842,
          -8.219363672155555E-4,
          0.0,
          -2.117538992347787E-4,
          0.0,
          -0.009747646150888755,
          -0.010193699115401217,
          -0.007475889135884509,
          -0.004503194176620599,
          0.0,
          -0.0,
          0.0,
          -0.0,
          -0.0027216170724236673,
          -0.011825090236880581,
          -0.002933489362348816,
          0.0,
          -9.082113528915885E-4,
          -0.0,
          -0.0,
          -0.0,
          -0.013779471590542334,
          -0.0013109492316284335,
          -1.5700533045090181E-6
        ],
        [
          -0.007089757536992465,
          -0.0,
          -0.0024463325516598648,
          -0.0037373527683248193,
          -0.0,
          -0.006042178202083395,
          0.0,
          -0.0018026622415799039,
          -0.0,
          -0.0,
          -0.005155236646635873,
          0.0,
          0.0,
          0.0,
          0.0,
          -0.0025649779487215084,
          -0.020657021447577563,
          -0.0010379111493221086,
          0.0,
          -2.6739507058527035E-4,
          -0.0,
          -0.012308970649306696,
          -0.01287223000066518,
          -0.009440279071135954,
          -0.005686468721794744,
          -0.0,
          0.0,
          -0.0,
          0.0,
          -0.0034367583870553798,
          -0.014932290975487924,
          -0.0037043029570695742,
          -0.0,
          -0.0011468560422754456,
          0.0,
          0.0,
          0.0,
          -0.017400212189224468,
          -0.0016554186892980812,
          -1.9826058254367807E-6
        ],
        [
          -0.0,
          0.0,
          -0.0,
          0.0,
          -0.0,
          0.0,
          0.0,
          -0.0,
          -0.0,
          -0.0,
          -0.0,
          -0.0,
          -0.0,
          -0.0,
          -0.0,
          0.0,
          -0.0,
          0.0,
          -0.0,
          -0.0,
          0.0,
          0.0,
          0.0,
          0.0,
          -0.0,
          -0.0,
          -0.0,
          -0.0,
          -0.0,
          -0.0,
          0.0,
          0.0,
          -0.0,
          -0.0,
          -0.0,
          0.0,
          -0.0,
          0.0,
          0.0,
          0.0
        ],
        [
          -0.017691732151451988,
          0.0,
          -0.006104561408697176,
          -0.00932616436989446,
          -0.0,
          -0.01507760989072515,
          0.0,
          -0.004498350947992596,
          -0.0,
          0.0,
          -0.012864342039025686,
          -0.0,
          -0.0,
          -0.0,
          -0.0,
          -0.006400628315762117,
          -0.05154738911598576,
          -0.002589996336969507,
          -0.0,
          -6.672558183731661E-4,
          0.0,
          -0.03071572062251336,
          -0.03212127413037859,
          -0.023557207406608025,
          -0.01418997490234062,
          0.0,
          -0.0,
          0.0,
          0.0,
          -0.008576063220186475,
          -0.037261936105356094,
          -0.009243692098405304,
          0.0,
          -0.002861856672861431,
          0.0,
          -0.0,
          0.0,
          -0.043420369712781695,
          -0.0041309204012629,
          -4.9473809284055565E-6
        ],
        [
          0.013071963477761643,
          -0.0,
          0.004510502595173717,
          0.006890861730622434,
          -0.0,
          0.011140456125847532,
          -0.0,
          0.003323715213351092,
          -0.0,
          -0.0,
          0.00950512973291745,
          0.0,
          0.0,
          -0.0,
          0.0,
          0.004729258778174596,
          0.038087033091490065,
          0.0019136813306108468,
          0.0,
          4.930180727036429E-4,
          0.0,
          0.02269505183174912,
          0.02373357897898194,
          0.017405811495510588,
          0.01048460558219146,
          -0.0,
          0.0,
          -0.0,
          0.0,
          0.006336631384510851,
          0.027531881203611653,
          0.0068299251014893704,
          0.0,
          0.002114551904018217,
          -0.0,
          -0.0,
          -0.0,
          0.032082188573593205,
          0.0030522302820652335,
          3.655491856481902E-6
        ],
        [
          0.0,
          -0.0,
          0.0,
          0.0,
          -0.0,
          -0.0,
          -0.0,
          -0.0,
          0.0,
          -0.0,
          -0.0,
          -0.0,
          0.0,
          -0.0,
          -0.0,
          -0.0,
          0.0,
          0.0,
          0.0,
          -0.0,
          -0.0,
          -0.0,
          0.0,
          0.0,
          0.0,
          -0.0,
          0.0,
          -0.0,
          0.0,
          0.0,
          0.0,
          -0.0,
          0.0,
          0.0,
          -0.0,
          -0.0,
          -0.0,
          -0.0,
          0.0,
          0.0
        ],
        [
          -0.004378164554070234,
          0.0,
          -0.0015106929128762157,
          -0.002307941467808939,
          0.0,
          -0.003731248959602501,
          0.0,
          -0.0011132047729228726,
          0.0,
          -0.0,
          -0.0031835326153790435,
          -0.0,
          -0.0,
          0.0,
          0.0,
          -0.001583960449771326,
          -0.012756407905709281,
          -6.40945163572404E-4,
          0.0,
          -1.6512548050636868E-4,
          -0.0,
          -0.007601204796172278,
          -0.007949036455294389,
          -0.005829690930066846,
          -0.003511586350547097,
          0.0,
          -0.0,
          0.0,
          0.0,
          -0.0021223142924987042,
          -0.009221193633044442,
          -0.002287532093947923,
          -0.0,
          -7.082223117945471E-4,
          0.0,
          0.0,
          0.0,
          -0.010745218273357176,
          -0.0010222769100090786,
          -1.2243260089403097E-6
        ],
        [
          -0.0,
          -0.0,
          -0.0,
          0.0,
          -0.0,
          0.0,
          0.0,
          -0.0,
          -0.0,
          0.0,
          0.0,
          0.0,
          0.0,
          -0.0,
          0.0,
          -0.0,
          0.0,
          -0.0,
          -0.0,
          0.0,
          -0.0,
          0.0,
          -0.0,
          0.0,
          0.0,
          -0.0,
          0.0,
          -0.0,
          -0.0,
          0.0,
          -0.0,
          -0.0,
          -0.0,
          0.0,
          0.0,
          0.0,
          0.0,
          0.0,
          -0.0,
          0.0
        ],
        [
          -0.0,
          0.0,
          0.0,
          0.0,
          0.0,
          0.0,
          0.0,
          0.0,
          0.0,
          0.0,
          0.0,
          0.0,
          0.0,
          -0.0,
          0.0,
          -0.0,
          0.0,
          -0.0,
          -0.0,
          -0.0,
          0.0,
          0.0,
          -0.0,
          -0.0,
          0.0,
          -0.0,
          -0.0,
          0.0,
          0.0,
          0.0,
          -0.0,
          -0.0,
          -0.0,
          0.0,
          0.0,
          -0.0,
          0.0,
          -0.0,
          -0.0,
          -0.0
        ],
        [
          0.0,
          -0.0,
          -0.0,
          0.0,
          0.0,
          0.0,
          -0.0,
          0.0,
          0.0,
          -0.0,
          0.0,
          -0.0,
          -0.0,
          0.0,
          0.0,
          -0.0,
          0.0,
          0.0,
          0.0,
          0.0,
          -0.0,
          0.0,
          0.0,
          0.0,
          0.0,
          -0.0,
          0.0,
          -0.0,
          0.0,
          -0.0,
          0.0,
          0.0,
          -0.0,
          0.0,
          0.0,
          0.0,
          -0.0,
          0.0,
          0.0,
          -0.0
        ],
        [
          0.0,
          -0.0,
          0.0,
          0.0,
          0.0,
          -0.0,
          0.0,
          -0.0,
          0.0,
          0.0,
          -0.0,
          0.0,
          0.0,
          0.0,
          0.0,
          0.0,
          -0.0,
          -0.0,
          0.0,
          -0.0,
          0.0,
          0.0,
          -0.0,
          0.0,
          -0.0,
          0.0,
          -0.0,
          -0.0,
          0.0,
          -0.0,
          0.0,
          -0.0,
          -0.0,
          0.0,
          0.0,
          -0.0,
          0.0,
          0.0,
          0.0,
          -0.0
        ],
        [
          0.0,
          -0.0,
          0.0,
          0.0,
          0.0,
          -0.0,
          -0.0,
          -0.0,
          0.0,
          -0.0,
          -0.0,
          -0.0,
          -0.0,
          -0.0,
          0.0,
          0.0,
          0.0,
          -0.0,
          0.0,
          0.0,
          -0.0,
          -0.0,
          0.0,
          -0.0,
          -0.0,
          -0.0,
          -0.0,
          -0.0,
          -0.0,
          0.0,
          0.0,
          0.0,
          -0.0,
          0.0,
          0.0,
          -0.0,
          -0.0,
          0.0,
          -0.0,
          -0.0
        ],
        [
          -0.0,
          0.0,
          -0.0,
          -0.0,
          0.0,
          0.0,
          -0.0,
          0.0,
          0.0,
          0.0,
          -0.0,
          0.0,
          -0.0,
          -0.0,
          -0.0,
          0.0,
          0.0,
          -0.0,
          -0.0,
          -0.0,
          0.0,
          -0.0,
          0.0,
          0.0,
          -0.0,
          0.0,
          0.0,
          -0.0,
          0.0,
          0.0,
          0.0,
          -0.0,
          -0.0,
          -0.0,
          0.0,
          -0.0,
          -0.0,
          -0.0,
          0.0,
          -0.0
        ],
        [
          0.0,
          -0.0,
          0.0,
          0.0,
          -0.0,
          -0.0,
          -0.0,
          0.0,
          0.0,
          -0.0,
          -0.0,
          -0.0,
          -0.0,
          0.0,
          -0.0,
          -0.0,
          0.0,
          0.0,
          0.0,
          0.0,
          -0.0,
          -0.0,
          0.0,
          -0.0,
          -0.0,
          0.0,
          0.0,
          0.0,
          0.0,
          0.0,
          -0.0,
          -0.0,
          -0.0,
          -0.0,
          -0.0,
          0.0,
          0.0,
          -0.0,
          -0.0,
          0.0
        ],
        [
          0.0,
          -0.0,
          -0.0,
          0.0,
          -0.0,
          -0.0,
          -0.0,
          0.0,
          0.0,
          -0.0,
          -0.0,
          0.0,
          0.0,
          -0.0,
          0.0,
          0.0,
          0.0,
          0.0,
          -0.0,
          0.0,
          0.0,
          0.0,
          0.0,
          0.0,
          0.0,
          0.0,
          0.0,
          0.0,
          -0.0,
          -0.0,
          0.0,
          -0.0,
          -0.0,
          0.0,
          0.0,
          -0.0,
          -0.0,
          0.0,
          0.0,
          0.0
        ],
        [
          -0.012289197995315552,
          -0.0,
          -0.004240408072190046,
          -0.00647822833272338,
          -0.0,
          -0.010473351713503082,
          0.0,
          -0.0031246869995009675,
          -0.0,
          -0.0,
          -0.00893595070531689,
          -0.0,
          0.0,
          -0.0,
          0.0,
          -0.004446064862018957,
          -0.035806334030211086,
          -0.001799087704905575,
          0.0,
          -4.634955353900172E-4,
          0.0,
          -0.02133604381230027,
          -0.02231238265822514,
          -0.016363529786581996,
          -0.009856774318681212,
          -0.0,
          -0.0,
          0.0,
          0.0,
          -0.005957185991229393,
          -0.025883237806645542,
          -0.006420940664971176,
          -0.0,
          -0.0019879298977586,
          -0.0,
          0.0,
          0.0,
          -0.03016106709406473,
          -0.0028694589246220856,
          -3.4365964432958374E-6
        ],
        [
          -0.020623969655455293,
          -0.0,
          -0.007116334804023134,
          -0.010871888027691306,
          -0.0,
          -0.017576581320647197,
          0.0,
          -0.0052439101302679866,
          0.0,
          -0.0,
          -0.014996485227054898,
          0.0,
          0.0,
          -0.0,
          -0.0,
          -0.0074614720045538315,
          -0.06009088199194688,
          -0.0030192637670594154,
          0.0,
          -7.778471679735804E-4,
          -0.0,
          -0.03580656120277995,
          -0.03744507192898646,
          -0.02746159203417944,
          -0.016541829216735342,
          -0.0,
          -0.0,
          -0.0,
          0.0,
          -0.009997464697196017,
          -0.043437750072272845,
          -0.01077574675616121,
          0.0,
          -0.0033361823858786043,
          0.0,
          -0.0,
          0.0,
          -0.050616885883135544,
          -0.004815581440834437,
          -5.767362588803357E-6
        ],
        [
          -0.0,
          0.0,
          0.0,
          0.0,
          0.0,
          -0.0,
          -0.0,
          0.0,
          -0.0,
          0.0,
          0.0,
          -0.0,
          -0.0,
          -0.0,
          0.0,
          0.0,
          -0.0,
          0.0,
          -0.0,
          -0.0,
          0.0,
          0.0,
          -0.0,
          0.0,
          0.0,
          -0.0,
          0.0,
          -0.0,
          0.0,
          -0.0,
          0.0,
          0.0,
          -0.0,
          -0.0,
          0.0,
          -0.0,
          0.0,
          -0.0,
          0.0,
          -0.0
        ]
      ]
    },
    {
      "data": [
        [
          1.0289076520030156,
          -0.5252303055740634,
          0.26074132575969966,
          0.49537986131240286,
          -2.9556066430542787,
          0.2123382327058201,
          -0.7536506522102262,
          0.3819129621403777,
          -0.6280817923384361,
          0.7190496687411069,
          -1.8465470927251633,
          -1.8431697608977375,
          -0.30970677050701134,
          -0.27329971918308255,
          -0.9814763337582433,
          -0.6275698869384231,
          -1.7840111673910268,
          -1.778692856142492,
          -0.06890693620427261,
          -0.6650838339332082,
          1.7363919539982917,
          0.6404866238688866,
          1.3280286427307624,
          2.020116960523356,
          -1.0249825475008147,
          -0.2934505424676198,
          -0.16709261010635307,
          -0.07919742322820951,
          1.3466685884766083,
          1.5962500779859163,
          -0.3397345269233008,
          0.08041075262707288,
          0.866424114043561,
          0.06103005035761839,
          0.8322889170628348,
          0.01646669558275419,
          -0.7682243512619447,
          -1.2468054773855293,
          1.5960552394165752,
          0.6902880214625282,
          -0.23542897775946794,
          -1.7228395761022266,
          -0.7194574319816776,
          -1.3962730648710662,
          0.5004118609920869,
          0.07438141713837854,
          0.7260424441475358,
          -0.24878511212958923,
          2.1594199180318387,
          -0.40464835276653544
        ],
        [
          0.7119128389149212,
          0.2983134915336579,
          0.1367720741661818,
          -0.38754325438886106,
          -0.01214596311115076,
          -0.5130071743124319,
          -0.6083629124221313,
          -1.3459249763652958,
          1.5349669198561804,
          0.738340456757988,
          0.5989675218818938,
          -1.1164359237064534,
          -0.955341515845161,
          -0.7626664256704443,
          -0.2872957439193492,
          0.467252732854874,
          -1.9081147606055477,
          -2.329482440611892,
          0.05032639189043786,
          -0.3955414796132546,
          0.13182099145620693,
          -0.3227046189241364,
          -0.955032667311716,
          0.12060006580726791,
          -1.0366819461889243,
          1.3514111022056727,
          2.1212801291077374,
          -0.08691698669034546,
          -0.36475935164720213,
          -2.0795502253593283,
          0.45500304067307484,
          -0.11404701261107146,
          -0.7300233882436524,
          0.07995620658217319,
          -1.0684881556153085,
          0.3321985559413692,
          0.4308802869451166,
          0.40552326839163116,
          1.0242954566777478,
          1.3268571942929182,
          1.503709700582015,
          1.262301402280967,
          -1.696177492454689,
          0.6839342942833566,
          -0.5793995746113196,
          -0.698990758292542,
          0.7898006758828345,
          0.5010133207174573,
          -0.42880115320490114,
          0.7520805456182443
        ]
      ]
    }
  ],
  "VdW": [
    {
      "data": [
        [
          -1.0301650353474183,
          -1.0301650353474183
        ],
        [
          0.0,
          0.0
        ],
        [
          -0.35546014745960924,
          -0.35546014745960924
        ],
        [
          -0.5430496214572025,
          -0.5430496214572025
        ],
        [
          0.0,
          0.0
        ],
        [
          -0.8779483203265016,
          -0.8779483203265016
        ],
        [
          0.0,
          0.0
        ],
        [
          -0.2619327391842493,
          -0.2619327391842493
        ],
        [
          0.0,
          0.0
        ],
        [
          0.0,
          0.0
        ],
        [
          -0.7490728017983583,
          -0.7490728017983583
        ],
        [
          0.0,
          0.0
        ],
        [
          0.0,
          0.0
        ],
        [
          0.0,
          0.0
        ],
        [
          0.0,
          0.0
        ],
        [
          -0.3726997129906003,
          -0.3726997129906003
        ],
        [
          -3.0015330028822795,
          -3.0015330028822795
        ],
        [
          -0.15081189592873748,
          -0.15081189592873748
        ],
        [
          0.0,
          0.0
        ],
        [
          -0.03885338121986824,
          -0.03885338121986824
        ],
        [
          0.0,
          0.0
        ],
        [
          -1.7885338275492697,
          -1.7885338275492697
        ],
        [
          -1.8703772596517574,
          -1.8703772596517574
        ],
        [
          -1.3717035275555698,
          -1.3717035275555698
        ],
        [
          -0.8262625655707202,
          -0.8262625655707202
        ],
        [
          0.0,
          0.0
        ],
        [
          0.0,
          0.0
        ],
        [
          0.0,
          0.0
        ],
        [
          0.0,
          0.0
        ],
        [
          -0.49937227145053165,
          -0.49937227145053165
        ],
        [
          -2.169710879436794,
          -2.169710879436794
        ],
        [
          -0.538247375428011,
          -0.538247375428011
        ],
        [
          0.0,
          0.0
        ],
        [
          -0.16664194638033733,
          -0.16664194638033733
        ],
        [
          0.0,
          0.0
        ],
        [
          0.0,
          0.0
        ],
        [
          0.0,
          0.0
        ],
        [
          -2.5283079303399,
          -2.5283079303399
        ],
        [
          -0.24053776785418493,
          -0.24053776785418493
        ],
        [
          -2.8807913240817167E-4,
          -2.8807913240817167E-4
        ]
      ]
    },
    {
      "data": [
        [
          0.0,
          0.0,
          0.0,
          0.0,
          0.0,
          0.0,
          0.0,
          0.0,
          0.0,
          0.0,
          0.0,
          0.0,
          0.0,
          0.0,
          0.0,
          0.0,
          0.0,
          0.0,
          0.0,
          0.0,
          0.0,
          0.0,
          0.0,
          0.0,
          0.0,
          0.0,
          0.0,
          0.0,
          0.0,
          0.0,
          0.0,
          0.0,
          0.0,
          0.0,
          0.0,
          0.0,
          0.0,
          0.0,
          0.0,
          0.0
        ],
        [
          0.0,
          0.0,
          0.0,
          0.0,
          0.0,
          0.0,
          0.0,
          0.0,
          0.0,
          0.0,
          0.0,
          0.0,
          0.0,
          0.0,
          0.0,
          0.0,
          0.0,
          0.0,
          0.0,
          0.0,
          0.0,
          0.0,
          0.0,
          0.0,
          0.0,
          0.0,
          0.0,
          0.0,
          0.0,
          0.0,
          0.0,
          0.0,
          0.0,
          0.0,
          0.0,
          0.0,
          0.0,
          0.0,
          0.0,
          0.0
        ],
        [
          0.0,
          0.0,
          0.0,
          0.0,
          0.0,
          0.0,
          0.0,
          0.0,
          0.0,
          0.0,
          0.0,
          0.0,
          0.0,
          0.0,
          0.0,
          0.0,
          0.0,
          0.0,
          0.0,
          0.0,
          0.0,
          0.0,
          0.0,
          0.0,
          0.0,
          0.0,
          0.0,
          0.0,
          0.0,
          0.0,
          0.0,
          0.0,
          0.0,
          0.0,
          0.0,
          0.0,
          0.0,
          0.0,
          0.0,
          0.0
        ],
        [
          0.0,
          0.0,
          0.0,
          0.0,
          0.0,
          0.0,
          0.0,
          0.0,
          0.0,
          0.0,
          0.0,
          0.0,
          0.0,
          0.0,
          0.0,
          0.0,
          0.0,
          0.0,
          0.0,
          0.0,
          0.0,
          0.0,
          0.0,
          0.0,
          0.0,
          0.0,
          0.0,
          0.0,
          0.0,
          0.0,
          0.0,
          0.0,
          0.0,
          0.0,
          0.0,
          0.0,
          0.0,
          0.0,
          0.0,
          0.0
        ],
        [
          0.0,
          0.0,
          0.0,
          0.0,
          0.0,
          0.0,
          0.0,
          0.0,
          0.0,
          0.0,
          0.0,
          0.0,
          0.0,
          0.0,
          0.0,
          0.0,
          0.0,
          0.0,
          0.0,
          0.0,
          0.0,
          0.0,
          0.0,
          0.0,
          0.0,
          0.0,
          0.0,
          0.0,
          0.0,
          0.0,
          0.0,
          0.0,
          0.0,
          0.0,
          0.0,
          0.0,
          0.0,
          0.0,
          0.0,
          0.0
        ],
        [
          -0.501522980520577,
          0.0,
          -0.17305133303238676,
          -0.2643769254233503,
          0.0,
          -0.4274181740255688,
          0.0,
          -0.12751868248692994,
          0.0,
          0.0,
          -0.3646767375075178,
          0.0,
          0.0,
          0.0,
          0.0,
          -0.18144420018601481,
          -1.4612588527902577,
          -0.07342088786641031,
          0.0,
          -0.018915283361484923,
          0.0,
          -0.8707253548475231,
          -0.9105698075280826,
          -0.6677967295776617,
          -0.40225560988667214,
          0.0,
          0.0,
          0.0,
          0.0,
          -0.24311315311020876,
          -1.0562966415920814,
          -0.262039011924917,
          0.0,
          -0.08112755020872085,
          0.0,
          0.0,
          0.0,
          -1.2308751368854742,
          -0.11710280792175556,
          -1.402477274550511E-4
        ],
        [
          -2.3837311557863066,
          0.0,
          -0.8225103736452362,
          -1.2565795356944294,
          0.0,
          -2.031512129148067,
          0.0,
          -0.6060943729306238,
          0.0,
          0.0,
          -1.7333030284770943,
          0.0,
          0.0,
          0.0,
          0.0,
          -0.8624015445337812,
          -6.945341269205864,
          -0.3489683717204547,
          0.0,
          -0.08990405628570791,
          0.0,
          -4.138544467750407,
          -4.327924549878079,
          -3.1740277751064356,
          -1.9119148416317513,
          0.0,
          0.0,
          0.0,
          0.0,
          -1.1555131468725874,
          -5.020561992397428,
          -1.245467468127827,
          0.0,
          -0.3855980214992587,
          0.0,
          0.0,
          0.0,
          -5.850330945216293,
          -0.5565878783528553,
          -6.66595331515652E-4
        ],
        [
          0.0,
          0.0,
          0.0,
          0.0,
          0.0,
          0.0,
          0.0,
          0.0,
          0.0,
          0.0,
          0.0,
          0.0,
          0.0,
          0.0,
          0.0,
          0.0,
          0.0,
          0.0,
          0.0,
          0.0,
          0.0,
          0.0,
          0.0,
          0.0,
          0.0,
          0.0,
          0.0,
          0.0,
          0.0,
          0.0,
          0.0,
          0.0,
          0.0,
          0.0,
          0.0,
          0.0,
          0.0,
          0.0,
          0.0,
          0.0
        ],
        [
          0.0,
          0.0,
          0.0,
          0.0,
          0.0,
          0.0,
          0.0,
          0.0,
          0.0,
          0.0,
          0.0,
          0.0,
          0.0,
          0.0,
          0.0,
          0.0,
          0.0,
          0.0,
          0.0,
          0.0,
          0.0,
          0.0,
          0.0,
          0.0,
          0.0,
          0.0,
          0.0,
          0.0,
          0.0,
          0.0,
          0.0,
          0.0,
          0.0,
          0.0,
          0.0,
          0.0,
          0.0,
          0.0,
          0.0,
          0.0
        ],
        [
          2.5E-323,
          0.0,
          2.5E-323,
          2.5E-323,
          0.0,
          2.5E-323,
          0.0,
          2.5E-323,
          0.0,
          0.0,
          2.5E-323,
          0.0,
          0.0,
          0.0,
          0.0,
          2.5E-323,
          2.5E-323,
          2.5E-323,
          0.0,
          2.5E-323,
          0.0,
          2.5E-323,
          2.5E-323,
          2.5E-323,
          2.5E-323,
          0.0,
          0.0,
          0.0,
          0.0,
          2.5E-323,
          2.5E-323,
          2.5E-323,
          0.0,
          2.5E-323,
          0.0,
          0.0,
          0.0,
          2.5E-323,
          2.5E-323,
          2.5E-323
        ],
        [
          0.0,
          0.0,
          0.0,
          0.0,
          0.0,
          0.0,
          0.0,
          0.0,
          0.0,
          0.0,
          0.0,
          0.0,
          0.0,
          0.0,
          0.0,
          0.0,
          0.0,
          0.0,
          0.0,
          0.0,
          0.0,
          0.0,
          0.0,
          0.0,
          0.0,
          0.0,
          0.0,
          0.0,
          0.0,
          0.0,
          0.0,
          0.0,
          0.0,
          0.0,
          0.0,
          0.0,
          0.0,
          0.0,
          0.0,
          0.0
        ],
        [
          0.0,
          0.0,
          0.0,
          0.0,
          0.0,
          0.0,
          0.0,
          0.0,
          0.0,
          0.0,
          0.0,
          0.0,
          0.0,
          0.0,
          0.0,
          0.0,
          0.0,
          0.0,
          0.0,
          0.0,
          0.0,
          0.0,
          0.0,
          0.0,
          0.0,
          0.0,
          0.0,
          0.0,
          0.0,
          0.0,
          0.0,
          0.0,
          0.0,
          0.0,
          0.0,
          0.0,
          0.0,
          0.0,
          0.0,
          0.0
        ],
        [
          -2.1885900544291133,
          0.0,
          -0.7551766142146757,
          -1.153711259654536,
          0.0,
          -1.865204987782672,
          0.0,
          -0.5564772325190556,
          0.0,
          0.0,
          -1.5914083936137073,
          0.0,
          0.0,
          0.0,
          0.0,
          -0.7918021454346186,
          -6.376769791971755,
          -0.3204005224346602,
          0.0,
          -0.08254417573983112,
          0.0,
          -3.7997478196921084,
          -3.973624543686546,
          -2.9141900521026947,
          -1.7553983791978351,
          0.0,
          0.0,
          0.0,
          0.0,
          -1.0609185414507136,
          -4.609560108124402,
          -1.143508867282654,
          0.0,
          -0.354031532797768,
          0.0,
          0.0,
          0.0,
          -5.371401087215179,
          -0.5110235237820011,
          -6.120253575335741E-4
        ],
        [
          -1.7935745721421879,
          0.0,
          -0.6188758694168427,
          -0.9454795678719603,
          0.0,
          -1.5285568127067146,
          0.0,
          -0.45603945435207627,
          0.0,
          0.0,
          -1.3041773734203177,
          0.0,
          0.0,
          0.0,
          0.0,
          -0.6488909109977679,
          -5.225835751258739,
          -0.26257189133109615,
          0.0,
          -0.06764589576096526,
          0.0,
          -3.1139367814271592,
          -3.256430744703965,
          -2.388212066148911,
          -1.4385690415330465,
          0.0,
          0.0,
          0.0,
          0.0,
          -0.869434874388354,
          -3.7775872105246737,
          -0.9371185906774449,
          0.0,
          -0.2901328888329581,
          0.0,
          0.0,
          0.0,
          -4.401924603152344,
          -0.41878962036176154,
          -5.015617778930209E-4
        ],
        [
          0.0,
          0.0,
          0.0,
          0.0,
          0.0,
          0.0,
          0.0,
          0.0,
          0.0,
          0.0,
          0.0,
          0.0,
          0.0,
          0.0,
          0.0,
          0.0,
          0.0,
          0.0,
          0.0,
          0.0,
          0.0,
          0.0,
          0.0,
          0.0,
          0.0,
          0.0,
          0.0,
          0.0,
          0.0,
          0.0,
          0.0,
          0.0,
          0.0,
          0.0,
          0.0,
          0.0,
          0.0,
          0.0,
          0.0,
          0.0
        ],
        [
          -0.3156021741531704,
          0.0,
          -0.1088990516215932,
          -0.16636911108825359,
          0.0,
          -0.26896894107430247,
          0.0,
          -0.08024592092719005,
          0.0,
          0.0,
          -0.22948653539463376,
          0.0,
          0.0,
          0.0,
          0.0,
          -0.11418057853849399,
          -0.9195520222472658,
          -0.04620285159185143,
          0.0,
          -0.01190315256822613,
          0.0,
          -0.5479366365125,
          -0.5730102550351747,
          -0.42023617647255457,
          -0.2531344524108691,
          0.0,
          0.0,
          0.0,
          0.0,
          -0.15298808363112773,
          -0.6647143392933219,
          -0.1648978912005394,
          0.0,
          -0.05105255835538381,
          0.0,
          0.0,
          0.0,
          -0.7745744151323063,
          -0.07369134060653637,
          -8.825615061330051E-5
        ],
        [
          -6.444918419784311,
          0.0,
          -2.2238297488800693,
          -3.397427002563813,
          0.0,
          -5.492620218257264,
          0.0,
          -1.6387035839784856,
          0.0,
          0.0,
          -4.686349208543633,
          0.0,
          0.0,
          0.0,
          0.0,
          -2.331683917510734,
          -18.77819055598475,
          -0.9435093724239255,
          0.0,
          -0.2430745207833445,
          0.0,
          -11.189425202819374,
          -11.701454076831508,
          -8.58165151008511,
          -5.169263803084728,
          0.0,
          0.0,
          0.0,
          0.0,
          -3.1241727686046517,
          -13.574145047325091,
          -3.3673831913026127,
          0.0,
          -1.042545332916622,
          0.0,
          0.0,
          0.0,
          -15.817599891301994,
          -1.504852365887591,
          -0.0018022806473787557
        ],
        [
          0.0,
          0.0,
          0.0,
          0.0,
          0.0,
          0.0,
          0.0,
          0.0,
          0.0,
          0.0,
          0.0,
          0.0,
          0.0,
          0.0,
          0.0,
          0.0,
          0.0,
          0.0,
          0.0,
          0.0,
          0.0,
          0.0,
          0.0,
          0.0,
          0.0,
          0.0,
          0.0,
          0.0,
          0.0,
          0.0,
          0.0,
          0.0,
          0.0,
          0.0,
          0.0,
          0.0,
          0.0,
          0.0,
          0.0,
          0.0
        ],
        [
          0.0,
          0.0,
          0.0,
          0.0,
          0.0,
          0.0,
          0.0,
          0.0,
          0.0,
          0.0,
          0.0,
          0.0,
          0.0,
          0.0,
          0.0,
          0.0,
          0.0,
          0.0,
          0.0,
          0.0,
          0.0,
          0.0,
          0.0,
          0.0,
          0.0,
          0.0,
          0.0,
          0.0,
          0.0,
          0.0,
          0.0,
          0.0,
          0.0,
          0.0,
          0.0,
          0.0,
          0.0,
          0.0,
          0.0,
          0.0
        ],
        [
          -1.8612027998593084,
          0.0,
          -0.6422111011243067,
          -0.9811296648966749,
          0.0,
          -1.5861923243904135,
          0.0,
          -0.47323480298487836,
          0.0,
          0.0,
          -1.3533524708838391,
          0.0,
          0.0,
          0.0,
          0.0,
          -0.6733578849246529,
          -5.4228802542794785,
          -0.27247238386419775,
          0.0,
          -0.0701965407766265,
          0.0,
          -3.2313503693659937,
          -3.3792171865773257,
          -2.478261597378266,
          -1.4928114891227215,
          0.0,
          0.0,
          0.0,
          0.0,
          -0.9022176427123471,
          -3.920024292351451,
          -0.9724534300717098,
          0.0,
          -0.301072591803204,
          0.0,
          0.0,
          0.0,
          -4.567902847982181,
          -0.43458043288290726,
          -5.204735837673874E-4
        ],
        [
          2.5E-323,
          0.0,
          2.5E-323,
          2.5E-323,
          0.0,
          2.5E-323,
          0.0,
          2.5E-323,
          0.0,
          0.0,
          2.5E-323,
          0.0,
          0.0,
          0.0,
          0.0,
          2.5E-323,
          2.5E-323,
          2.5E-323,
          0.0,
          2.5E-323,
          0.0,
          2.5E-323,
          2.5E-323,
          2.5E-323,
          2.5E-323,
          0.0,
          0.0,
          0.0,
          0.0,
          2.5E-323,
          2.5E-323,
          2.5E-323,
          0.0,
          2.5E-323,
          0.0,
          0.0,
          0.0,
          2.5E-323,
          2.5E-323,
          2.5E-323
        ],
        [
          0.5864408687347602,
          0.0,
          0.20235239065990798,
          0.3091412354779091,
          0.0,
          0.49978863386958067,
          0.0,
          0.1491101501668457,
          0.0,
          0.0,
          0.4264238151744919,
          0.0,
          0.0,
          0.0,
          0.0,
          0.2121663383670302,
          1.7086792517207854,
          0.08585251511099698,
          0.0,
          0.022118019787167566,
          0.0,
          1.0181566017097263,
          1.0647475184808664,
          0.78086809466887,
          0.4703655435101087,
          0.0,
          0.0,
          0.0,
          0.0,
          0.2842770805094704,
          1.235148825072541,
          0.30640746638596267,
          0.0,
          0.09486406978468082,
          0.0,
          0.0,
          0.0,
          1.4392869571597193,
          0.13693065936406573,
          1.6399447746431143E-4
        ],
        [
          -0.07824513494975902,
          0.0,
          -0.026998613089075085,
          -0.04124678032875044,
          0.0,
          -0.06668366955367874,
          0.0,
          -0.0198948341498699,
          0.0,
          0.0,
          -0.05689506093957118,
          0.0,
          0.0,
          0.0,
          0.0,
          -0.028308026712294047,
          -0.22797837900553128,
          -0.011454763794223971,
          0.0,
          -0.00295106895739067,
          0.0,
          -0.1358462633626536,
          -0.1420625978041055,
          -0.10418634290810544,
          -0.06275793074767966,
          0.0,
          0.0,
          0.0,
          0.0,
          -0.03792931174046018,
          -0.16479817770774832,
          -0.0408820306277579,
          0.0,
          -0.012657119136665885,
          0.0,
          0.0,
          0.0,
          -0.19203505109962873,
          -0.01826980091584763,
          -2.1880756789503203E-5
        ],
        [
          2.5E-323,
          0.0,
          2.5E-323,
          2.5E-323,
          0.0,
          2.5E-323,
          0.0,
          2.5E-323,
          0.0,
          0.0,
          2.5E-323,
          0.0,
          0.0,
          0.0,
          0.0,
          2.5E-323,
          2.5E-323,
          2.5E-323,
          0.0,
          2.5E-323,
          0.0,
          2.5E-323,
          2.5E-323,
          2.5E-323,
          2.5E-323,
          0.0,
          0.0,
          0.0,
          0.0,
          2.5E-323,
          2.5E-323,
          2.5E-323,
          0.0,
          2.5E-323,
          0.0,
          0.0,
          0.0,
          2.5E-323,
          2.5E-323,
          2.5E-323
        ],
        [
          -3.6006588238640864,
          0.0,
          -1.2424132760930207,
          -1.898080738720182,
          0.0,
          -3.068627120909961,
          0.0,
          -0.9155139188786359,
          0.0,
          0.0,
          -2.618178156864214,
          0.0,
          0.0,
          0.0,
          0.0,
          -1.3026694405121704,
          -10.4910338840054,
          -0.52712154381783,
          0.0,
          -0.1358013183577853,
          0.0,
          -6.251328560935782,
          -6.537389789829768,
          -4.794412779261932,
          -2.8879737667930256,
          0.0,
          0.0,
          0.0,
          0.0,
          -1.745418562944153,
          -7.583628210254024,
          -1.8812958072324422,
          0.0,
          -0.5824511355676999,
          0.0,
          0.0,
          0.0,
          -8.83700567041067,
          -0.8407336752646186,
          -0.0010069014521802084
        ],
        [
          0.0,
          0.0,
          0.0,
          0.0,
          0.0,
          0.0,
          0.0,
          0.0,
          0.0,
          0.0,
          0.0,
          0.0,
          0.0,
          0.0,
          0.0,
          0.0,
          0.0,
          0.0,
          0.0,
          0.0,
          0.0,
          0.0,
          0.0,
          0.0,
          0.0,
          0.0,
          0.0,
          0.0,
          0.0,
          0.0,
          0.0,
          0.0,
          0.0,
          0.0,
          0.0,
          0.0,
          0.0,
          0.0,
          0.0,
          0.0
        ],
        [
          0.0,
          0.0,
          0.0,
          0.0,
          0.0,
          0.0,
          0.0,
          0.0,
          0.0,
          0.0,
          0.0,
          0.0,
          0.0,
          0.0,
          0.0,
          0.0,
          0.0,
          0.0,
          0.0,
          0.0,
          0.0,
          0.0,
          0.0,
          0.0,
          0.0,
          0.0,
          0.0,
          0.0,
          0.0,
          0.0,
          0.0,
          0.0,
          0.0,
          0.0,
          0.0,
          0.0,
          0.0,
          0.0,
          0.0,
          0.0
        ],
        [
          0.0,
          0.0,
          0.0,
          0.0,
          0.0,
          0.0,
          0.0,
          0.0,
          0.0,
          0.0,
          0.0,
          0.0,
          0.0,
          0.0,
          0.0,
          0.0,
          0.0,
          0.0,
          0.0,
          0.0,
          0.0,
          0.0,
          0.0,
          0.0,
          0.0,
          0.0,
          0.0,
          0.0,
          0.0,
          0.0,
          0.0,
          0.0,
          0.0,
          0.0,
          0.0,
          0.0,
          0.0,
          0.0,
          0.0,
          0.0
        ],
        [
          0.0,
          0.0,
          0.0,
          0.0,
          0.0,
          0.0,
          0.0,
          0.0,
          0.0,
          0.0,
          0.0,
          0.0,
          0.0,
          0.0,
          0.0,
          0.0,
          0.0,
          0.0,
          0.0,
          0.0,
          0.0,
          0.0,
          0.0,
          0.0,
          0.0,
          0.0,
          0.0,
          0.0,
          0.0,
          0.0,
          0.0,
          0.0,
          0.0,
          0.0,
          0.0,
          0.0,
          0.0,
          0.0,
          0.0,
          0.0
        ],
        [
          -0.7245157528196601,
          0.0,
          -0.24999535753728286,
          -0.38192715905545005,
          0.0,
          -0.6174616361577353,
          0.0,
          -0.18421746924675295,
          0.0,
          0.0,
          -0.5268233984748311,
          0.0,
          0.0,
          0.0,
          0.0,
          -0.2621199554127669,
          -2.110980152284943,
          -0.10606610646236894,
          0.0,
          -0.027325608789089493,
          0.0,
          -1.2578770275126718,
          -1.315437567609116,
          -0.9647200009823189,
          -0.5811110105472352,
          0.0,
          0.0,
          0.0,
          0.0,
          -0.35120884981815376,
          -1.5259591009959026,
          -0.37854973623708515,
          0.0,
          -0.11719939144737662,
          0.0,
          0.0,
          0.0,
          -1.7781606448061704,
          -0.16917037171588942,
          -2.0260624494787994E-4
        ],
        [
          0.17554470588293172,
          0.0,
          0.06057199079549099,
          0.09253807186961327,
          0.0,
          0.14960630033434685,
          0.0,
          0.044634504262419605,
          0.0,
          0.0,
          0.12764533852796756,
          0.0,
          0.0,
          0.0,
          0.0,
          0.06350968947176872,
          0.5114745794213339,
          0.02569901812434276,
          0.0,
          0.006620789043280835,
          0.0,
          0.30477412253943265,
          0.3187206075432005,
          0.23374438467727318,
          0.14079881774115033,
          0.0,
          0.0,
          0.0,
          0.0,
          0.08509525708015438,
          0.36972838828031046,
          0.091719747777991,
          0.0,
          0.028396529159262242,
          0.0,
          0.0,
          0.0,
          0.4308349213806538,
          0.040988705947935335,
          4.9089966009715874E-5
        ],
        [
          -0.05237010496521526,
          0.0,
          -0.01807039124282897,
          -0.02760680541583613,
          0.0,
          -0.0446319221793692,
          0.0,
          -0.013315774244152473,
          0.0,
          0.0,
          -0.03808032685125859,
          0.0,
          0.0,
          0.0,
          0.0,
          -0.018946792426556138,
          -0.15258778256290903,
          -0.007666766536225451,
          0.0,
          -0.0019751744457642303,
          0.0,
          -0.09092300851679155,
          -0.0950836516980801,
          -0.06973276635720332,
          -0.04200439327973604,
          0.0,
          0.0,
          0.0,
          0.0,
          -0.02538639671823315,
          -0.11030076017087315,
          -0.0273626754754983,
          0.0,
          -0.008471512742230491,
          0.0,
          0.0,
          0.0,
          -0.12853062097145762,
          -0.012228126288885307,
          -1.4644968412673927E-5
        ],
        [
          -0.055474037575344776,
          0.0,
          -0.01914140831819422,
          -0.02924303783600466,
          0.0,
          -0.04727721912497056,
          0.0,
          -0.014104989120330407,
          0.0,
          0.0,
          -0.040337316185087936,
          0.0,
          0.0,
          0.0,
          0.0,
          -0.020069753071932046,
          -0.16163153365943528,
          -0.008121169418974042,
          0.0,
          -0.0020922413941114656,
          0.0,
          -0.09631193968914278,
          -0.10071918073495907,
          -0.0738657694824488,
          -0.04449395877051125,
          0.0,
          0.0,
          0.0,
          0.0,
          -0.026891027359698276,
          -0.11683819458395772,
          -0.028984438516935836,
          0.0,
          -0.008973612263993944,
          0.0,
          0.0,
          0.0,
          -0.13614852408810207,
          -0.012952877174415579,
          -1.551296352287292E-5
        ],
        [
          0.24566995801921893,
          0.0,
          0.08476882490430974,
          0.12950447076739657,
          0.0,
          0.20936987724973158,
          0.0,
          0.062464753540730035,
          0.0,
          0.0,
          0.17863611892931358,
          0.0,
          0.0,
          0.0,
          0.0,
          0.08888005290656892,
          0.7157945198195473,
          0.03596506469384956,
          0.0,
          0.00926561104839935,
          0.0,
          0.42652295045308297,
          0.44604067027356115,
          0.3271187979271166,
          0.19704404909078638,
          0.0,
          0.0,
          0.0,
          0.0,
          0.1190884574352111,
          0.5174246478723851,
          0.12835924884672503,
          0.0,
          0.03974015673876143,
          0.0,
          0.0,
          0.0,
          0.6029415499398999,
          0.05736255969010377,
          6.870004895968996E-5
        ],
        [
          0.0,
          0.0,
          0.0,
          0.0,
          0.0,
          0.0,
          0.0,
          0.0,
          0.0,
          0.0,
          0.0,
          0.0,
          0.0,
          0.0,
          0.0,
          0.0,
          0.0,
          0.0,
          0.0,
          0.0,
          0.0,
          0.0,
          0.0,
          0.0,
          0.0,
          0.0,
          0.0,
          0.0,
          0.0,
          0.0,
          0.0,
          0.0,
          0.0,
          0.0,
          0.0,
          0.0,
          0.0,
          0.0,
          0.0,
          0.0
        ],
        [
          0.5988104292539322,
          0.0,
          0.20662052795372768,
          0.3156618267686657,
          0.0,
          0.5103304737771268,
          0.0,
          0.1522552703739195,
          0.0,
          0.0,
          0.43541820057603653,
          0.0,
          0.0,
          0.0,
          0.0,
          0.2166414772982992,
          1.7447197334450788,
          0.08766336755666601,
          0.0,
          0.022584546250290577,
          0.0,
          1.0396321679164517,
          1.0872058080879712,
          0.7973386301814039,
          0.480286774049744,
          0.0,
          0.0,
          0.0,
          0.0,
          0.29027322221624124,
          1.2612013206547164,
          0.312870395388787,
          0.0,
          0.09686499931544189,
          0.0,
          0.0,
          0.0,
          1.4696452559588,
          0.13981888248805818,
          1.6745354677880403E-4
        ],
        [
          -0.6281944690144957,
          0.0,
          -0.21675953942068776,
          -0.33115156979171045,
          0.0,
          -0.535372741245944,
          0.0,
          -0.15972654124673424,
          0.0,
          0.0,
          -0.4567844712572936,
          0.0,
          0.0,
          0.0,
          0.0,
          -0.22727222364426986,
          -1.8303343311775597,
          -0.09196506931733725,
          0.0,
          -0.023692785473544645,
          0.0,
          -1.09064763368995,
          -1.140555745116581,
          -0.8364645853540185,
          -0.5038547765020955,
          0.0,
          0.0,
          0.0,
          0.0,
          -0.30451712894588145,
          -1.3230893371983923,
          -0.32822316095344406,
          0.0,
          -0.10161823147747706,
          0.0,
          0.0,
          0.0,
          -1.5417617598226698,
          -0.1466798912507569,
          -1.7567060753161394E-4
        ],
        [
          0.0,
          0.0,
          0.0,
          0.0,
          0.0,
          0.0,
          0.0,
          0.0,
          0.0,
          0.0,
          0.0,
          0.0,
          0.0,
          0.0,
          0.0,
          0.0,
          0.0,
          0.0,
          0.0,
          0.0,
          0.0,
          0.0,
          0.0,
          0.0,
          0.0,
          0.0,
          0.0,
          0.0,
          0.0,
          0.0,
          0.0,
          0.0,
          0.0,
          0.0,
          0.0,
          0.0,
          0.0,
          0.0,
          0.0,
          0.0
        ],
        [
          2.5E-323,
          0.0,
          2.5E-323,
          2.5E-323,
          0.0,
          2.5E-323,
          0.0,
          2.5E-323,
          0.0,
          0.0,
          2.5E-323,
          0.0,
          0.0,
          0.0,
          0.0,
          2.5E-323,
          2.5E-323,
          2.5E-323,
          0.0,
          2.5E-323,
          0.0,
          2.5E-323,
          2.5E-323,
          2.5E-323,
          2.5E-323,
          0.0,
          0.0,
          0.0,
          0.0,
          2.5E-323,
          2.5E-323,
          2.5E-323,
          0.0,
          2.5E-323,
          0.0,
          0.0,
          0.0,
          2.5E-323,
          2.5E-323,
          2.5E-323
        ],
        [
          0.0,
          0.0,
          0.0,
          0.0,
          0.0,
          0.0,
          0.0,
          0.0,
          0.0,
          0.0,
          0.0,
          0.0,
          0.0,
          0.0,
          0.0,
          0.0,
          0.0,
          0.0,
          0.0,
          0.0,
          0.0,
          0.0,
          0.0,
          0.0,
          0.0,
          0.0,
          0.0,
          0.0,
          0.0,
          0.0,
          0.0,
          0.0,
          0.0,
          0.0,
          0.0,
          0.0,
          0.0,
          0.0,
          0.0,
          0.0
        ],
        [
          0.0,
          0.0,
          0.0,
          0.0,
          0.0,
          0.0,
          0.0,
          0.0,
          0.0,
          0.0,
          0.0,
          0.0,
          0.0,
          0.0,
          0.0,
          0.0,
          0.0,
          0.0,
          0.0,
          0.0,
          0.0,
          0.0,
          0.0,
          0.0,
          0.0,
          0.0,
          0.0,
          0.0,
          0.0,
          0.0,
          0.0,
          0.0,
          0.0,
          0.0,
          0.0,
          0.0,
          0.0,
          0.0,
          0.0,
          0.0
        ],
        [
          0.0,
          0.0,
          0.0,
          0.0,
          0.0,
          0.0,
          0.0,
          0.0,
          0.0,
          0.0,
          0.0,
          0.0,
          0.0,
          0.0,
          0.0,
          0.0,
          0.0,
          0.0,
          0.0,
          0.0,
          0.0,
          0.0,
          0.0,
          0.0,
          0.0,
          0.0,
          0.0,
          0.0,
          0.0,
          0.0,
          0.0,
          0.0,
          0.0,
          0.0,
          0.0,
          0.0,
          0.0,
          0.0,
          0.0,
          0.0
        ],
        [
          0.0,
          0.0,
          0.0,
          0.0,
          0.0,
          0.0,
          0.0,
          0.0,
          0.0,
          0.0,
          0.0,
          0.0,
          0.0,
          0.0,
          0.0,
          0.0,
          0.0,
          0.0,
          0.0,
          0.0,
          0.0,
          0.0,
          0.0,
          0.0,
          0.0,
          0.0,
          0.0,
          0.0,
          0.0,
          0.0,
          0.0,
          0.0,
          0.0,
          0.0,
          0.0,
          0.0,
          0.0,
          0.0,
          0.0,
          0.0
        ],
        [
          0.0,
          0.0,
          0.0,
          0.0,
          0.0,
          0.0,
          0.0,
          0.0,
          0.0,
          0.0,
          0.0,
          0.0,
          0.0,
          0.0,
          0.0,
          0.0,
          0.0,
          0.0,
          0.0,
          0.0,
          0.0,
          0.0,
          0.0,
          0.0,
          0.0,
          0.0,
          0.0,
          0.0,
          0.0,
          0.0,
          0.0,
          0.0,
          0.0,
          0.0,
          0.0,
          0.0,
          0.0,
          0.0,
          0.0,
          0.0
        ],
        [
          0.0,
          0.0,
          0.0,
          0.0,
          0.0,
          0.0,
          0.0,
          0.0,
          0.0,
          0.0,
          0.0,
          0.0,
          0.0,
          0.0,
          0.0,
          0.0,
          0.0,
          0.0,
          0.0,
          0.0,
          0.0,
          0.0,
          0.0,
          0.0,
          0.0,
          0.0,
          0.0,
          0.0,
          0.0,
          0.0,
          0.0,
          0.0,
          0.0,
          0.0,
          0.0,
          0.0,
          0.0,
          0.0,
          0.0,
          0.0
        ],
        [
          0.0,
          0.0,
          0.0,
          0.0,
          0.0,
          0.0,
          0.0,
          0.0,
          0.0,
          0.0,
          0.0,
          0.0,
          0.0,
          0.0,
          0.0,
          0.0,
          0.0,
          0.0,
          0.0,
          0.0,
          0.0,
          0.0,
          0.0,
          0.0,
          0.0,
          0.0,
          0.0,
          0.0,
          0.0,
          0.0,
          0.0,
          0.0,
          0.0,
          0.0,
          0.0,
          0.0,
          0.0,
          0.0,
          0.0,
          0.0
        ],
        [
          0.0,
          0.0,
          0.0,
          0.0,
          0.0,
          0.0,
          0.0,
          0.0,
          0.0,
          0.0,
          0.0,
          0.0,
          0.0,
          0.0,
          0.0,
          0.0,
          0.0,
          0.0,
          0.0,
          0.0,
          0.0,
          0.0,
          0.0,
          0.0,
          0.0,
          0.0,
          0.0,
          0.0,
          0.0,
          0.0,
          0.0,
          0.0,
          0.0,
          0.0,
          0.0,
          0.0,
          0.0,
          0.0,
          0.0,
          0.0
        ],
        [
          0.4162149043245281,
          0.0,
          0.14361564039706404,
          0.21940692848506063,
          0.0,
          0.35471518019764536,
          0.0,
          0.1058280044830564,
          0.0,
          0.0,
          0.30264593908243664,
          0.0,
          0.0,
          0.0,
          0.0,
          0.15058089729462393,
          1.2127015854311647,
          0.060932138716794204,
          0.0,
          0.015697830728314495,
          0.0,
          0.7226166782719012,
          0.7556836676311689,
          0.5542058144990535,
          0.3338327189099099,
          0.0,
          0.0,
          0.0,
          0.0,
          0.2017600821736389,
          0.8766226527889485,
          0.2174666894913072,
          0.0,
          0.0673279128967465,
          0.0,
          0.0,
          0.0,
          1.0215056881390678,
          0.09718384977034435,
          1.1639186384609069E-4
        ],
        [
          2.5E-323,
          0.0,
          2.5E-323,
          2.5E-323,
          0.0,
          2.5E-323,
          0.0,
          2.5E-323,
          0.0,
          0.0,
          2.5E-323,
          0.0,
          0.0,
          0.0,
          0.0,
          2.5E-323,
          2.5E-323,
          2.5E-323,
          0.0,
          2.5E-323,
          0.0,
          2.5E-323,
          2.5E-323,
          2.5E-323,
          2.5E-323,
          0.0,
          0.0,
          0.0,
          0.0,
          2.5E-323,
          2.5E-323,
          2.5E-323,
          0.0,
          2.5E-323,
          0.0,
          0.0,
          0.0,
          2.5E-323,
          2.5E-323,
          2.5E-323
        ],
        [
          0.0,
          0.0,
          0.0,
          0.0,
          0.0,
          0.0,
          0.0,
          0.0,
          0.0,
          0.0,
          0.0,
          0.0,
          0.0,
          0.0,
          0.0,
          0.0,
          0.0,
          0.0,
          0.0,
          0.0,
          0.0,
          0.0,
          0.0,
          0.0,
          0.0,
          0.0,
          0.0,
          0.0,
          0.0,
          0.0,
          0.0,
          0.0,
          0.0,
          0.0,
          0.0,
          0.0,
          0.0,
          0.0,
          0.0,
          0.0
        ]
      ]
    },
    {
      "data": [
        [
          0.0,
          0.0,
          0.0,
          0.0,
          0.0,
          2.300802732613899,
          3.3979108687232493,
          0.0,
          0.0,
          2.5E-323,
          0.0,
          0.0,
          4.383207546376363,
          2.735847671870642,
          0.0,
          1.862277131581175,
          9.559696329559587,
          0.0,
          0.0,
          7.25243617770958,
          2.5E-323,
          0.3656239163988919,
          0.0015582441476653126,
          2.5E-323,
          6.158536494284327,
          0.0,
          0.0,
          0.0,
          0.0,
          2.792505477875946,
          1.890380946506578,
          1.8416210711237548,
          5.954793464816833E-4,
          0.5464226671955895,
          0.0,
          1.621309908670004,
          2.644829731240813,
          0.0,
          2.5E-323,
          0.0,
          0.0,
          0.0,
          0.0,
          0.0,
          0.0,
          0.0,
          0.0,
          0.9977319259955467,
          2.5E-323,
          0.0
        ],
        [
          0.0,
          0.0,
          0.0,
          0.0,
          0.0,
          2.2168807179374777,
          3.2736531823795354,
          0.0,
          0.0,
          2.5E-323,
          0.0,
          0.0,
          4.223090177631563,
          2.6358242120787847,
          0.0,
          1.7943714098467332,
          9.21015925824755,
          0.0,
          0.0,
          6.987853197752629,
          2.5E-323,
          0.35241617803983805,
          0.004545964951664468,
          2.5E-323,
          5.9334659608398095,
          0.0,
          0.0,
          0.0,
          0.0,
          2.6906203130695596,
          1.82154669606558,
          1.7745167222055889,
          0.0017368717800080816,
          0.5265634908876524,
          0.0,
          1.5623601489770695,
          2.548353285389476,
          0.0,
          2.5E-323,
          0.0,
          0.0,
          0.0,
          0.0,
          0.0,
          0.0,
          0.0,
          0.0,
          0.9614654885477324,
          2.5E-323,
          0.0
        ]
      ]
    }
  ],
  "VdB": [
    {
      "data": [
        [
          -2.0540469599215694
        ],
        [
          0.0
        ],
        [
          -0.7087522971661033
        ],
        [
          -1.0827871125178943
        ],
        [
          0.0
        ],
        [
          -1.7505419194573306
        ],
        [
          0.0
        ],
        [
          -0.5222679164643661
        ],
        [
          0.0
        ],
        [
          0.0
        ],
        [
          -1.493576910980048
        ],
        [
          0.0
        ],
        [
          0.0
        ],
        [
          0.0
        ],
        [
          0.0
        ],
        [
          -0.7431262818717277
        ],
        [
          -5.9847592649030155
        ],
        [
          -0.3007039704545603
        ],
        [
          0.0
        ],
        [
          -0.0774697906053759
        ],
        [
          0.0
        ],
        [
          -3.5661591542519346
        ],
        [
          -3.7293468447009404
        ],
        [
          -2.7350408565740203
        ],
        [
          -1.6474856480982845
        ],
        [
          0.0
        ],
        [
          0.0
        ],
        [
          0.0
        ],
        [
          0.0
        ],
        [
          -0.99569880635307
        ],
        [
          -4.326188409523045
        ],
        [
          -1.0732119099837396
        ],
        [
          0.0
        ],
        [
          -0.3322675218175203
        ],
        [
          0.0
        ],
        [
          0.0
        ],
        [
          0.0
        ],
        [
          -5.041195381193325
        ],
        [
          -0.4796084645219819
        ],
        [
          -5.744012326532621E-4
        ]
      ]
    },
    {
      "data": [
        [
          0.0
        ],
        [
          0.0
        ],
        [
          0.0
        ],
        [
          0.0
        ],
        [
          0.0
        ],
        [
          -0.5743340004899792
        ],
        [
          -2.729299672144916
        ],
        [
          0.0
        ],
        [
          0.0
        ],
        [
          2.5E-323
        ],
        [
          0.0
        ],
        [
          0.0
        ],
        [
          -2.505977712756474
        ],
        [
          -2.053671844753972
        ],
        [
          0.0
        ],
        [
          -0.3612048533356257
        ],
        [
          -7.379307673821865
        ],
        [
          0.0
        ],
        [
          0.0
        ],
        [
          -2.1309988167909526
        ],
        [
          2.5E-323
        ],
        [
          0.6713275883457368
        ],
        [
          -0.09527586556109313
        ],
        [
          2.5E-323
        ],
        [
          -4.12267708265704
        ],
        [
          0.0
        ],
        [
          0.0
        ],
        [
          0.0
        ],
        [
          0.0
        ],
        [
          -0.8300674018080275
        ],
        [
          0.20110570331087002
        ],
        [
          -0.05998974569856653
        ],
        [
          -0.06844318753036333
        ],
        [
          0.2812893596728394
        ],
        [
          0.0
        ],
        [
          0.6856688646553897
        ],
        [
          -0.7191016342311
        ],
        [
          0.0
        ],
        [
          2.5E-323
        ],
        [
          0.0
        ],
        [
          0.0
        ],
        [
          0.0
        ],
        [
          0.0
        ],
        [
          0.0
        ],
        [
          0.0
        ],
        [
          0.0
        ],
        [
          0.0
        ],
        [
          0.47666153741655226
        ],
        [
          2.5E-323
        ],
        [
          0.0
        ]
      ]
    },
    {
      "data": [
        [
          5354.670015967412
        ],
        [
          5222.929984032626
        ]
      ]
    }
  ],
  "Bias": [
    {
      "data": [
        [
          0.8600542140447133
        ],
        [
          -0.03386016577549417
        ],
        [
          0.29676312751625317
        ],
        [
          0.4533760119437004
        ],
        [
          -0.28239503231509033
        ],
        [
          0.7329729962691206
        ],
        [
          -0.2626972971118991
        ],
        [
          0.2186798701197584
        ],
        [
          -1.647857280995027
        ],
        [
          -0.6292519728535741
        ],
        [
          0.6253786507088084
        ],
        [
          -0.7624760674759764
        ],
        [
          -1.3272962967250435
        ],
        [
          -0.26757370830777355
        ],
        [
          -1.5425886766365131
        ],
        [
          0.31115592913005496
        ],
        [
          2.5058908224861303
        ],
        [
          0.1259083760087435
        ],
        [
          -0.9985985354740207
        ],
        [
          0.032437534862328185
        ],
        [
          -1.640278716188045
        ],
        [
          1.4931938112484264
        ],
        [
          1.5615224637034946
        ],
        [
          1.1451945647682666
        ],
        [
          0.6898220935899151
        ],
        [
          -0.9466067718663097
        ],
        [
          -0.8140404795064736
        ],
        [
          -0.43167377958166026
        ],
        [
          -0.570410764449431
        ],
        [
          0.4169110887104281
        ],
        [
          1.8114272190270524
        ],
        [
          0.44936675925838493
        ],
        [
          -1.7750795657140919
        ],
        [
          0.13912441531534495
        ],
        [
          -1.0802674190858974
        ],
        [
          -1.5990591000564667
        ],
        [
          -0.7853747188465628
        ],
        [
          2.1108092541290473
        ],
        [
          0.20081784353138385
        ],
        [
          2.4050871783125037E-4
        ]
      ]
    },
    {
      "data": [
        [
